[[ 0.2446722  -0.11437455 -0.02279978 ... -0.14523596 -0.07317565
  -0.26734805]
 [ 0.01567869 -0.18643807  0.23214221 ... -0.04437635 -0.1047636
   0.05189231]
 [ 0.16918604 -0.17794879  0.2491393  ...  0.18701124 -0.1723142
   0.357753  ]
 ...
 [ 0.15940325  0.18379343  0.06797697 ...  0.20036027  0.16840965
   0.06890277]
 [-0.03396641 -0.10859314 -0.06193945 ... -0.03405655  0.02183242
  -0.09433034]
 [ 0.06510422 -0.18003032 -0.24437845 ...  0.03364008 -0.19062118
  -0.05780394]]
[ 0.01433799  0.04112848 -0.11511546 -0.03450222  0.04402977 -0.0311573
  0.06771459 -0.00941145  0.04207446  0.06547078  0.07891776 -0.00116244
  0.0040296   0.00605442  0.03675359  0.04313183 -0.01453767  0.00478107
 -0.06789773 -0.05569792  0.09485465 -0.02282856  0.02406103 -0.00835224
 -0.00984428  0.0116883  -0.11920599  0.08445612  0.1494743  -0.02701637
 -0.00574266 -0.01337852 -0.02485211 -0.018945   -0.00167315 -0.00272325
  0.01651498  0.04175315  0.09339431 -0.01995134 -0.01343175  0.06853373
 -0.01369017 -0.07551747 -0.06719457 -0.00298028 -0.01871655  0.02241963
  0.06282805 -0.01712656  0.01212828 -0.03327583 -0.04832843 -0.03240333
  0.07543366 -0.05192663 -0.0002201  -0.02602742  0.0446101   0.08267079
 -0.02626226  0.05951945  0.02425644  0.01772649 -0.06412188  0.03824892
  0.0176911  -0.00964501  0.0540541   0.00093859 -0.15198095  0.02238123
  0.11376054 -0.01992897 -0.00974132 -0.01328396  0.00960821  0.00022439
 -0.08698459  0.04286945  0.02114668 -0.00650633  0.05577151 -0.00124056
 -0.05860211  0.0739101  -0.04275334 -0.02889814  0.00172361  0.16389315
  0.03197246  0.0607028  -0.01977754  0.03448832 -0.00999606  0.0408588
  0.1231801  -0.03937596 -0.11922704 -0.02380469]
[[ 0.1425693  -0.28161493  0.01129181 ...  0.09159411 -0.16592464
   0.00587834]
 [-0.0480035  -0.11953573 -0.01124846 ... -0.02654411  0.22565381
  -0.1243453 ]
 [ 0.13450107 -0.1908953   0.17738888 ... -0.11546065 -0.01056492
   0.23399876]
 ...
 [ 0.08747585 -0.05072358 -0.028016   ... -0.13805693  0.1128717
   0.16634427]
 [-0.0697633   0.19316523  0.07062797 ...  0.00829025 -0.16955598
  -0.1197776 ]
 [-0.16643178  0.2266308  -0.01087192 ...  0.109206   -0.05640931
   0.25003177]]
[-0.00627249  0.04822473  0.03750099  0.075823    0.12696506 -0.03150919
 -0.00973425  0.1497113   0.06087377 -0.04254563  0.11520541  0.10233102
  0.00046862  0.00341206  0.00421615  0.0864516   0.0396577  -0.03489025
 -0.04825351 -0.01562748 -0.04213772 -0.02265663 -0.06876006  0.06920743
 -0.08973229]
[[ 0.3194793  -0.10038429  0.41171905  0.07660513  0.22679946]
 [-0.05554182  1.0974656  -0.19693705 -0.07378872  0.3511948 ]
 [-0.02830194  0.10280167  0.24841549  0.1380501   0.40059865]
 [-0.17581967 -0.08907207  0.60695     0.19753227 -0.07072212]
 [ 0.3427071   1.1881977  -0.56798023 -0.1530527  -0.21106106]
 [ 0.41686207  0.09902388 -0.3428926  -0.36125505  0.12520549]
 [-0.41836792  0.10001335 -0.41979316 -0.26184806  0.32176697]
 [-0.07565307  1.1064444  -0.70712364  0.03035542 -0.07767124]
 [ 0.07624962 -0.7490407   0.8981311   0.3957582  -0.18321519]
 [-0.36865294  0.01852037 -0.5338256  -0.20392172  0.39864886]
 [ 0.2781937   1.0569718  -0.31344014 -0.21841684  0.29236996]
 [-0.26627564  0.83737946 -0.527857   -0.36385882  0.48967907]
 [ 0.13228408  0.48208326 -0.602757    0.13197836 -0.3354679 ]
 [-0.01502835 -0.07738767  0.26667285 -0.09427686 -0.36564168]
 [ 0.04914136  0.4794043   0.03629168 -0.35112688  0.3311738 ]
 [ 0.02979144  0.09738988  0.40496507  0.4917084  -0.21034747]
 [-0.11533404  0.92763764 -0.6947714   0.23624198 -0.01196004]
 [ 0.07550015 -0.7112105   0.5963998   0.13060312  0.16731444]
 [ 0.25649375 -0.5160361   0.16960701  0.18749087  0.1091974 ]
 [-0.35345444 -0.7657032   0.702904    0.40440583  0.2434386 ]
 [-0.2708058  -0.4986165   0.4429807  -0.05874355 -0.29213092]
 [-0.32418454 -0.10295252 -0.2863286   0.19562425 -0.07366519]
 [ 0.00634786 -0.53860885  0.54125637  0.24138694  0.17890577]
 [-0.3134459  -0.81129175  0.82221836 -0.1931001   0.25638685]
 [-0.29922298 -0.704495    0.12837534  0.05130723 -0.15612282]]
[0.0316063  0.2159403  0.06075774 0.03112693 0.0169803 ]
[[-0.21135177]
 [-3.027421  ]
 [ 2.3227553 ]
 [ 0.6447741 ]
 [-0.28270742]]
[-0.37112987]
