[[ 0.4705019  -0.5435082  -0.57374436  0.37155342 -0.47606966 -0.0242793
   0.4611224  -0.25751507 -0.24630767  0.24423021  0.09886318  0.46281385
   0.08656722  0.14299655 -0.27236637 -0.16703993]
 [-0.20244804 -0.21408507  0.06134558 -0.03135443  0.09685206 -0.50615674
  -0.49034214  0.5420989  -0.39667737  0.54589677 -0.502633   -0.17473766
   0.21001089 -0.05439788 -0.11054161  0.23051012]]
[0. 0. 0. 0. 0. 0. 0. 0. 0. 0. 0. 0. 0. 0. 0. 0.]
[[-3.04322243e-02  4.76287484e-01 -3.51156354e-01 -2.29360580e-01
   9.70709324e-02  2.31195450e-01 -2.68591285e-01  4.15204525e-01]
 [ 4.37878370e-02 -2.33190060e-02  2.86306500e-01  3.99589539e-04
   4.37246561e-02 -4.47010636e-01 -3.32476616e-01 -1.09876633e-01]
 [-2.13562369e-01  4.43740010e-01  4.01847959e-01 -1.16013169e-01
  -8.79472494e-02  1.79919958e-01 -4.80272055e-01 -2.96865821e-01]
 [-2.86581159e-01 -2.94777393e-01  4.09150481e-01  1.10366464e-01
   2.17405200e-01  3.17889094e-01 -2.48292089e-01  3.29437256e-02]
 [ 1.54182911e-01 -3.47139120e-01  3.70994091e-01  4.80860829e-01
   1.69992447e-01  8.34640265e-02 -1.73886895e-01  2.68037915e-01]
 [ 1.25628591e-01  7.80522823e-02  6.93062544e-02  4.45759892e-01
   4.14296746e-01 -7.34589100e-02  4.05861497e-01  2.24486828e-01]
 [ 8.95320177e-02 -2.19516039e-01 -2.86053658e-01 -4.55042124e-01
  -4.69629049e-01 -4.75035429e-01 -3.84294629e-01  1.64202809e-01]
 [ 2.57201552e-01 -1.64516449e-01  1.56826138e-01  3.61586452e-01
  -8.03422928e-02  3.06852818e-01 -1.53193355e-01  3.88364911e-01]
 [ 3.09196591e-01  4.69998121e-02  3.12133074e-01  3.46826315e-01
  -2.12377310e-02  2.43812084e-01  1.60861135e-01 -4.31635618e-01]
 [-1.17788792e-01 -3.37068677e-01  2.13522673e-01  1.68079376e-01
  -2.57337093e-01  4.57034707e-01 -3.34121585e-01  3.33189964e-02]
 [ 4.41440821e-01  1.22031450e-01  2.20522165e-01 -1.23014927e-01
  -2.27681994e-01 -4.99138832e-02 -2.39151955e-01  6.97284937e-02]
 [ 2.03259826e-01  2.49845505e-01 -2.12001324e-01  2.48098373e-02
   7.24558830e-02  3.82091045e-01  1.79010987e-01  3.08962822e-01]
 [-2.04726815e-01 -4.29545879e-01 -4.39774632e-01 -6.18414879e-02
  -4.92634773e-02 -2.36004591e-02 -2.48540640e-01 -4.08025861e-01]
 [ 2.83747554e-01 -4.72834110e-02 -2.81266093e-01 -2.20263600e-01
   3.67017865e-01  2.56315947e-01 -2.18664050e-01 -8.54766369e-03]
 [-3.03398490e-01 -8.97402763e-02 -2.10683346e-01 -4.21470404e-01
   4.24054503e-01 -2.49403954e-01  3.35201859e-01 -1.12490058e-01]
 [ 1.09528661e-01  1.26366615e-02 -5.97717762e-02  9.00673866e-02
  -3.95580530e-01 -2.39299417e-01  4.18637037e-01  4.39892411e-01]]
[0. 0. 0. 0. 0. 0. 0. 0.]
[[-0.67411083]
 [-0.14928931]
 [-0.46142888]
 [-0.43413234]
 [-0.7070525 ]
 [-0.02062488]
 [ 0.5451155 ]
 [-0.40063193]]
[0.]
